digraph Tree {
node [shape=box] ;
0 [label="start_date_hour <= 7.5\nmse = 99895.89\nsamples = 10\nvalue = 478.9"] ;
1 [label="bike_id <= 514.0\nmse = 77414.25\nsamples = 4\nvalue = 754.5"] ;
0 -> 1 [labeldistance=2.5, labelangle=45, headlabel="True"] ;
2 [label="mse = 64672.2222\nsamples = 3\nvalue = 852.6667"] ;
1 -> 2 ;
3 [label="mse = 0.0\nsamples = 1\nvalue = 460.0"] ;
1 -> 3 ;
4 [label="start_date_hour <= 10.5\nmse = 30488.8056\nsamples = 6\nvalue = 295.1667"] ;
0 -> 4 [labeldistance=2.5, labelangle=-45, headlabel="False"] ;
5 [label="mse = 4742.75\nsamples = 4\nvalue = 186.5"] ;
4 -> 5 ;
6 [label="mse = 11130.25\nsamples = 2\nvalue = 512.5"] ;
4 -> 6 ;
}